// Auto-generated by export_weights.py — DO NOT EDIT
// ENIE Embedded Neural Inference Engine

#ifndef FC1_WEIGHTS_H
#define FC1_WEIGHTS_H

// FC1 weights: [32, 256]

static const int8_t fc1_weights[8192] = {
    -4, -9, 63, 31, 73, 67, 18, 40, 25, 53, -37, 53,
    25, 45, 17, 1, 16, 46, -29, -17, 21, 1, 31, 41,
    7, 79, -13, -26, 1, -12, -7, -38, -73, -4, 18, 26,
    16, -15, -3, -49, -7, -82, 0, -15, -12, -5, -55, 39,
    45, 39, 13, 48, 56, 33, 42, -11, 51, 34, 36, 52,
    34, 0, 19, 25, 42, 10, 69, 64, -5, 38, 19, -1,
    32, 31, 22, 10, 24, 81, 66, 70, 40, 29, 46, 45,
    -5, -12, 6, 22, 47, 50, 62, 31, 17, -5, -3, -14,
    34, 51, 64, 4, 25, 17, 49, 46, 26, 56, 55, 59,
    22, 11, 37, 9, -19, 18, -5, 1, -12, -4, -48, 17,
    -2, 37, 5, 6, 34, 50, -14, 33, 21, -57, 17, -36,
    -25, -45, -56, 37, -57, 23, -73, -14, -13, 34, -39, -12,
    -10, 26, 2, 15, -51, -51, 27, -45, -19, -28, 35, -30,
    -57, -25, 7, 39, 56, -2, 37, -27, 40, 59, 54, -5,
    9, 41, -4, -11, -26, 23, 69, 34, -21, 2, -40, -17,
    -27, -42, 22, -51, -17, -69, -24, -34, -6, -54, 11, -52,
    56, -19, 52, 30, 28, 13, 54, 39, -16, 45, -7, 87,
    52, 30, 1, 34, -32, 6, 7, 11, 1, -55, 19, -35,
    -40, -1, 18, 23, -13, 6, -73, -8, -56, 42, -38, -10,
    57, 48, -14, 0, 11, 25, -7, -9, -36, 23, 38, -3,
    41, 43, 54, 3, 19, 52, 56, 63, -6, 54, 65, -26,
    42, 9, 47, -11, 31, 57, -27, -29, -4, 67, 71, -1,
    47, 8, 15, 83, 63, 21, 53, 40, 51, 20, 4, 63,
    37, 60, 20, 67, 76, 77, 57, 95, 35, 43, 91, 84,
    1, 76, 30, 10, 65, -23, 44, 65, -20, -5, -23, 11,
    -29, 5, 46, 65, 73, 70, 61, -2, -7, 40, 92, 42,
    35, 4, 8, -5, 77, 23, -14, 35, -25, -29, -7, 7,
    -77, -65, -45, -94, -85, 14, -41, -61, -47, -63, 7, -27,
    9, -2, 64, 22, 24, 19, 15, 47, 79, 8, 35, -7,
    8, 78, 35, 95, -9, -44, -31, 47, -49, 22, -2, -11,
    12, -29, 16, -58, -29, 29, -1, -18, 22, 0, 56, 27,
    25, 40, 72, 5, 18, 69, 50, -7, -35, 28, 50, 26,
    77, -25, 52, -17, 56, 60, 40, 72, -9, -18, -22, 64,
    54, -1, 65, 101, -15, 67, 31, 33, 77, 75, 45, 72,
    51, 35, -26, 26, -13, 43, 31, 16, -7, -4, 63, 51,
    48, 6, 9, 0, 53, -7, 43, 39, -48, 9, -12, -16,
    61, 20, 41, -31, 16, -50, -26, 3, 47, 36, -45, 16,
    -27, 5, -45, 11, 2, -77, -80, -19, -17, -42, 5, -75,
    -67, -74, -39, -49, 4, -38, -22, -48, 59, 67, -49, 1,
    -20, 27, -36, -23, 58, -36, 55, 24, 63, -14, 50, 33,
    38, 35, -42, -37, 48, -28, -36, -18, -24, -3, -37, 28,
    -38, -3, 40, 21, -30, 0, -17, -15, -36, -48, -54, 30,
    -20, 6, 22, -9, -40, -45, -32, 24, -43, -12, 12, 13,
    -12, 6, 34, 3, -1, -19, -47, -34, -27, 3, -2, 13,
    33, -12, -47, -37, -42, 29, -29, 1, -5, -41, 37, -11,
    -15, -38, -14, 17, 32, 6, 43, 26, 10, -11, 17, -19,
    81, 11, 10, 42, 52, 26, 78, -10, 25, 19, -36, -20,
    14, 28, 64, 54, -32, -25, 9, -18, -21, -43, 22, 52,
    -20, -50, -53, -50, -8, -41, -6, 25, 12, -23, -53, 9,
    -16, -67, -76, -3, 8, 23, -47, -81, -32, -10, 13, -24,
    31, -20, 39, -41, -2, -17, -49, 17, -58, 28, -10, -14,
    -5, -17, -31, 21, -53, 0, -46, -46, -29, -2, -45, -46,
    45, -1, 35, -7, 13, 57, -3, -10, 44, 18, 7, -36,
    39, 11, -5, -3, 7, 60, 18, 63, 25, 33, 68, 25,
    19, 42, 87, 36, 70, 56, 52, 58, 57, 35, 70, 76,
    57, 32, 86, -12, 76, 60, 64, 30, -5, 75, 11, 22,
    34, -42, -1, -38, 34, -60, 32, 26, 27, 41, -19, -72,
    22, -1, -32, -62, 19, 1, 74, 70, 67, 67, 4, 2,
    15, 9, 77, 39, 78, 34, -13, 3, 21, 24, 7, -58,
    -71, -48, 14, -31, 1, -22, -42, -7, -54, -36, -40, -46,
    29, 49, 6, 69, -17, -19, 3, 16, 29, 8, 60, -16,
    41, 38, 53, 80, 68, -36, -23, 10, -22, 43, -2, 35,
    33, 13, 22, 21, 15, 58, -8, 22, -35, -44, -5, 28,
    34, 17, -6, -1, -19, -27, -23, 48, 9, -45, 6, -25,
    8, -18, 39, -26, 60, 49, -30, -47, -2, -22, 16, -15,
    76, -42, -32, -13, 22, 1, -55, -35, -36, -61, -7, 9,
    -29, -44, -24, -59, -41, -15, 48, -21, 24, -41, -18, -58,
    40, 49, -6, 21, 46, 36, 37, -50, -65, -55, 18, -45,
    -48, -38, -62, -15, -6, -44, 15, -40, -37, 23, 32, -14,
    -26, -28, 3, 31, 72, 36, 10, 7, 27, 37, 38, 31,
    80, -25, -11, 13, 42, 79, 57, 4, 6, 14, 6, -37,
    -37, -47, -5, -48, -13, -23, 46, 44, 44, 25, -7, 37,
    5, 38, 40, 35, 11, 79, 96, 9, 66, 37, 26, 44,
    78, 42, 6, 9, 17, 7, 1, -25, -32, -34, -52, -11,
    0, 31, -20, 1, 32, 14, 2, 13, 12, -50, 4, -13,
    42, 38, 8, 62, -35, 44, 75, 17, -60, -29, -25, -11,
    -80, -23, -37, -17, -35, -26, -48, -36, 3, 44, 60, -38,
    18, -35, -56, 23, -32, -34, -49, -30, 53, 47, -9, -22,
    -28, -11, -7, 41, 26, 10, 74, -8, -57, 9, -33, 13,
    46, -32, -38, 27, -55, 55, -6, 37, -50, -46, 6, 11,
    69, 84, 39, 32, 42, 26, 58, 20, 6, 63, 19, 97,
    75, 38, 77, -15, -11, 4, 30, -51, 22, -32, 26, 42,
    -11, 10, 15, 55, 21, -4, -36, -24, 39, 52, 50, -25,
    66, 10, 56, 65, 32, 5, 68, -16, 50, -31, 2, -36,
    12, 61, -7, -15, 63, 57, 55, 20, 27, 15, 48, 18,
    30, -11, 1, 34, 47, 53, 13, 70, 21, -16, -20, -4,
    17, 12, 34, -15, 17, -51, -58, -1, -86, -61, -67, -29,
    -27, -47, -71, 6, -64, -15, 9, -67, -48, -5, 19, -25,
    18, -79, -45, 40, -15, 57, -9, -28, 51, 35, -6, -40,
    -11, -34, 21, -10, -31, -2, -16, -70, 8, -3, -79, -6,
    -34, -46, -68, -40, -85, 4, 13, -37, 105, 32, 65, 15,
    53, 74, 86, 63, 29, 92, 89, 63, 30, 61, 56, 98,
    -17, -19, -11, 6, -14, 13, 1, -67, -32, -70, -58, -8,
    -4, -14, 34, -71, 26, 42, 49, 47, 105, 30, 34, 71,
    103, 68, 83, 69, 104, 82, 93, 44, -75, -52, 1, 8,
    -45, 28, -13, -22, -26, -26, 40, -13, 23, -40, -21, 16,
    16, 18, 3, -55, -10, -46, -52, -12, -54, 31, -51, -8,
    -1, -69, -9, -60, -10, 14, -52, -50, 27, -14, -23, 14,
    -43, -28, 19, 10, -47, 12, -56, -17, 19, -31, -45, -13,
    20, -15, -14, -30, 35, -4, 32, 15, -1, 17, 12, -1,
    -46, -72, -41, 51, 26, -7, 14, 50, -40, -14, -24, 7,
    13, -23, 50, -52, 102, 9, 44, 61, 27, 108, 24, 62,
    13, 67, 98, 108, 61, 30, 110, 65, 27, -41, -14, -38,
    46, 21, -34, 22, -24, 14, 21, -28, 9, -26, 6, -35,
    -18, 91, 81, 56, 79, 94, 55, 68, 65, 88, 91, 14,
    52, 22, 50, -13, 84, 39, 74, 73, 26, 83, 86, 17,
    110, 101, 86, 46, 74, 23, 46, 74, 37, 34, -32, 74,
    9, 61, 61, 52, 87, 48, 46, 12, 83, 38, 50, 5,
    64, 63, -25, 72, -10, -17, -32, 32, -19, 9, -16, 29,
    -24, 3, 29, 16, -41, -2, -60, -75, -39, -45, 13, -57,
    -32, -11, -80, 8, -58, -39, -66, -17, 8, -33, 46, 26,
    80, 52, 61, 32, 61, 84, 59, -25, 19, -26, 27, -7,
    71, 23, 16, -12, -21, 48, -14, 0, 54, 10, 16, 55,
    56, -18, 65, 36, -17, 27, 36, 30, 84, -19, 46, -5,
    -20, 70, -9, 21, 62, -14, -17, 36, 62, 8, 51, 33,
    38, -16, 90, 39, 23, 74, -15, 40, 7, 33, 36, 38,
    34, -34, -20, 20, 15, -31, 58, 22, -28, 40, 31, -21,
    52, -18, 33, 60, 45, 13, -9, 14, 22, -1, -18, 11,
    -25, -27, -61, -40, -36, 52, -2, -81, -26, 20, -10, -15,
    -27, -13, 5, 8, 28, 29, 38, -12, -32, -5, -38, 41,
    16, -3, -26, 49, 45, 83, -2, 36, 14, -18, -9, 51,
    -12, 52, 46, 32, 30, 5, 8, -2, -48, -56, -41, 11,
    5, 9, -50, -26, -71, 2, -66, -17, 54, 18, -17, 12,
    -19, 51, -49, 47, 62, 37, 16, 80, 55, 76, 51, -36,
    35, 9, -54, 11, -35, -42, -13, -27, -34, -39, 7, 32,
    -37, -52, -20, -45, -37, 0, 34, -40, 15, -32, -31, -1,
    -1, -11, 37, 21, 29, 16, 1, 53, -43, 35, 32, -12,
    5, -43, -48, -2, 16, 18, 39, -42, 1, 44, -43, 16,
    30, 33, 18, -43, 12, -38, -41, 31, -26, -39, -44, 28,
    -14, 27, -26, -60, -15, 15, 3, 1, -52, -57, 2, -69,
    -12, -32, -3, -20, -61, -42, 24, -12, 35, 5, 77, 13,
    2, 48, 13, 8, 20, 25, -3, 42, -30, 62, 70, 26,
    -50, -89, -2, 25, 28, -27, -20, 17, -21, -55, -79, -6,
    1, 29, -48, 0, 15, 13, 54, -21, 64, 55, -1, 70,
    19, 38, 21, -26, 31, 56, 29, -2, -16, -20, -40, -57,
    -36, -40, -13, 17, -28, 2, 12, -50, -32, 23, 22, -28,
    -24, 51, -35, 35, 27, 42, -4, 13, 47, 73, 10, 76,
    19, 2, 2, 24, -29, 6, -31, -12, -52, 44, -18, -44,
    -5, -11, 4, -19, 40, 1, -1, -8, -15, 53, 32, 69,
    73, -21, 1, -8, 51, 6, 29, 20, -31, -25, -46, -17,
    -9, 1, 55, -43, 0, -39, 7, 33, -40, 45, -15, 54,
    5, 42, 55, -12, -23, 16, -50, 30, -40, 50, -42, -20,
    38, -32, 41, 36, 58, -38, 29, -14, -4, -4, 56, 26,
    14, -12, 54, 11, 67, 37, 38, 28, 16, 4, -16, 50,
    0, 57, 7, 64, 72, 0, 79, 33, -6, 58, 66, 84,
    -15, 85, 73, 82, 54, -3, 80, 75, 9, 31, 72, 72,
    64, 84, -5, 12, -3, 56, 34, -17, -16, -12, -21, 68,
    11, 42, 19, 35, 34, 60, 15, 74, 54, 65, -33, 1,
    -3, 19, 11, 35, 74, 51, 0, -4, 65, 40, 53, -5,
    30, 43, -11, 55, 55, -14, -7, -6, 20, 14, 91, -24,
    -2, 8, 55, 39, 15, 88, -5, 51, 8, 19, -18, -17,
    -17, 61, 24, 74, 6, 24, 50, 90, 19, 67, 43, 69,
    73, 54, 14, 17, 57, 37, 1, 32, -2, 64, 23, -2,
    3, -19, 49, -9, 19, 33, -2, 30, 25, 57, 84, 7,
    64, 33, 9, 17, 42, 39, 22, 5, 13, 0, -68, -32,
    -33, -65, -56, -68, 42, -83, 11, -63, -44, -42, -69, 13,
    61, 3, 4, 50, 21, 56, 71, 17, 5, 43, 19, 6,
    -1, -3, 78, 48, 33, 9, -27, 50, -13, -13, 12, -34,
    5, -78, -11, -15, -72, 5, 0, -23, 74, 58, 50, 3,
    -8, -2, 45, 41, -2, 81, 63, 6, 43, -2, 26, 63,
    -10, 0, 5, 28, -18, 2, 32, 10, 37, 29, 51, 33,
    44, 25, 57, 83, 15, 3, 50, -4, 76, 54, 37, -2,
    26, -7, -13, 88, -13, -16, 9, 19, 34, 6, 26, 10,
    70, 53, 42, 13, 62, -26, 19, -29, 50, -32, 7, -28,
    68, 36, 59, -13, 37, -27, -12, 15, 4, -25, -17, -2,
    29, 63, 53, 15, -50, -60, 34, -73, -28, -62, -57, -1,
    -30, -25, -23, -33, -38, -38, 3, 24, 56, -4, -25, 26,
    19, 43, 67, 25, -20, -5, 64, 42, -16, 20, -26, 3,
    79, -23, 54, -24, 32, 36, 14, -14, 11, -7, -19, -32,
    56, -13, 22, -46, 0, -18, -41, 2, -48, -6, -52, 35,
    -38, -18, 1, -45, 19, 38, -29, 20, 46, 74, 74, -13,
    -6, -1, 21, 28, 20, 79, 6, -1, 3, 15, 104, 47,
    26, 20, -6, 19, 65, 76, 88, 45, 10, 8, 94, -6,
    52, 36, 90, 63, -18, -81, -28, -60, -27, -20, -7, -47,
    -65, -80, -85, -24, -53, -28, -47, -45, 76, 70, 78, 91,
    0, 13, 7, 78, 74, 84, 1, 14, 94, -3, -2, 52,
    -48, -12, 24, 29, -16, -58, 16, 29, -54, -15, -59, -41,
    -6, 13, 3, -48, 27, 69, 32, 25, 12, 99, 6, 2,
    82, 7, 77, 17, 36, 14, 82, 79, 17, 11, 1, -11,
    -11, 31, -12, 39, 17, 9, -34, 19, -48, 19, 29, 26,
    66, 44, 14, -9, -22, 57, 68, -2, 51, 9, 72, 9,
    68, 60, 46, 52, 50, 12, -65, -24, -8, 32, -18, 21,
    36, 22, 28, -8, 28, -14, 59, -5, 22, -33, 51, -7,
    43, -34, -41, -7, -40, 14, 1, -16, 38, 31, -46, -37,
    60, 1, 48, 22, 41, -1, 40, 13, 7, -3, 35, 57,
    23, 25, 54, 67, 21, -76, -22, -15, -74, -77, -28, 23,
    -83, -50, -48, -81, -67, 14, 6, -45, -11, -52, 7, -59,
    -36, -41, -14, 14, -42, -8, 27, -28, -19, -12, -21, 14,
    17, -49, 25, 12, -24, 23, -19, 11, -70, 14, 19, -59,
    -62, -43, -47, -2, 52, -8, 36, 2, -32, -49, 7, -76,
    -11, 10, -33, 11, -7, 22, 26, -49, -66, -19, -36, 16,
    -39, -49, -2, 18, -14, -62, 0, 25, 30, 4, 32, -24,
    49, -36, -41, 20, -35, 32, -39, 21, 30, 11, 44, -60,
    -32, 9, 24, -39, 18, -20, -27, 6, -58, -58, 20, 17,
    17, -26, -41, -40, 38, -63, -5, 44, 77, -5, 11, -3,
    74, -22, -20, -6, 84, 75, 72, 82, 14, 3, 6, 43,
    7, 18, -39, 0, -36, -6, -1, 11, -59, 30, -18, 26,
    26, 12, 23, 28, 12, 0, 20, -49, -47, -13, 0, -24,
    -61, -26, -9, -24, -26, 7, -105, -1, -37, -32, 20, 29,
    -15, 28, -45, -2, -24, -54, 7, 12, -25, -2, 1, 38,
    3, -10, -9, 0, -53, -27, -96, -52, -55, 1, -70, -37,
    -35, 4, 12, -39, 63, -32, 18, 43, 47, -1, -13, 39,
    61, -17, 11, -15, 20, 21, 30, -1, -47, 14, -17, 10,
    47, -10, 30, -24, -13, -19, 17, -4, 39, 54, 72, 57,
    30, 9, 58, -12, 73, -20, -4, 37, 8, 42, 78, 59,
    82, 12, 5, -6, -10, -22, -15, 27, -39, 4, 18, 22,
    16, -21, 6, -45, -45, 47, 22, -48, 73, 39, 39, 87,
    28, 15, 73, 14, 26, 14, 94, 53, 28, 37, 39, -11,
    6, -42, 0, -48, -29, 44, 13, 24, -53, -33, 3, -7,
    -44, -34, -47, 51, 61, 58, 68, 69, 83, 48, 59, 58,
    9, 40, 54, -5, 25, 6, 6, 66, 68, -5, 42, 15,
    22, 20, -21, -15, 76, 31, -2, 21, -27, 23, 73, 16,
    22, -40, 5, 48, -32, -14, 50, 30, 34, -66, 25, 1,
    1, 49, -36, 26, -27, 47, 21, 12, -11, 48, -1, 21,
    65, -3, 19, 34, 35, 38, 87, 10, 42, 65, 23, 59,
    55, 59, 31, 90, 2, 46, 46, 73, -20, 38, -4, 61,
    48, -19, 15, 44, 55, 52, 34, 23, 38, -24, 63, 23,
    51, 31, 31, 53, 0, 52, 54, 3, 43, -15, 15, 67,
    56, -23, 53, 39, 77, -29, 10, 1, -60, -25, -67, 18,
    -39, -13, -52, -29, -56, 16, 15, 25, -57, 14, -79, 16,
    17, -15, -19, -33, 21, 17, 9, 84, 14, 39, 25, 65,
    34, 45, 34, 28, 51, -10, -28, 15, -26, -56, -37, -28,
    -25, -56, -59, -58, -26, 23, -43, -35, -15, 31, 31, -20,
    38, -25, 80, 31, 20, 6, 46, 59, -28, 0, 49, 11,
    -6, 11, 18, 2, -16, 2, 41, 53, 71, 14, 53, -25,
    58, 72, 62, 20, 80, -27, 14, 13, -17, -3, -9, 38,
    24, 56, 15, 75, 31, 65, 69, -36, -15, 63, 73, -38,
    14, -21, 69, 53, 57, 42, -16, 43, -26, 6, -42, -28,
    6, 34, 1, -12, -4, 10, -22, 23, -37, 7, -26, -45,
    1, 58, 64, 33, 23, -43, 16, 2, -68, -62, 3, -10,
    -58, -74, 17, -30, -35, -92, 24, -53, 33, 24, 19, 46,
    2, -9, 58, -27, 35, -17, 6, 52, 24, -41, 64, -24,
    83, -24, 58, 36, -17, 22, -17, -54, 26, 44, 0, 56,
    6, -28, -15, 24, -41, 25, -56, -3, -48, 6, 28, 9,
    -23, -79, -45, -33, 23, -40, 15, 58, 14, -53, -11, -21,
    30, -10, -8, 49, 8, 20, -23, 30, 3, -16, 5, -43,
    2, 25, -56, -34, 29, -4, -2, 6, -30, 40, -5, -20,
    23, -51, -10, 0, -22, 30, -52, -21, -28, 45, 17, -46,
    16, -6, 45, 25, -37, 43, -15, -18, 16, 49, 11, -58,
    -23, 46, -19, -26, -44, -30, -35, 8, 17, 47, 31, -4,
    24, 26, -52, 22, -37, 42, -24, 11, -6, 20, 3, -45,
    22, 32, -34, -41, -37, -27, -12, 4, 0, -14, 29, -2,
    -37, -14, -32, -19, -57, 4, -42, 21, 32, -41, -29, -43,
    15, 11, -33, 28, 17, -55, -8, -24, -9, 30, -6, -43,
    33, -55, -24, 21, 43, 48, -18, 13, -53, -11, -22, 10,
    -41, 7, 23, 37, -14, 45, -57, -21, 15, 9, 26, -36,
    28, -56, -43, -9, -58, -57, -54, 39, 12, -23, -2, -53,
    -52, -38, -53, 31, -24, -20, -52, 9, -13, -42, 30, 41,
    -39, 31, -9, -1, 23, -10, 41, 28, -41, -38, -54, 17,
    -41, -46, -35, -54, -50, 43, 25, 43, -26, -28, -24, -4,
    -44, 3, -40, 3, 45, 4, 35, -44, -13, -39, -11, -22,
    -36, -58, -25, 7, -15, -51, 36, 35, -33, 6, 31, -57,
    -53, 25, -6, 17, -23, 5, 36, -19, -23, -57, -14, 29,
    -52, -4, 40, -21, -25, -16, -27, 1, -58, 16, -19, -12,
    -9, 25, -39, -55, -45, -45, -32, 43, -47, -37, -50, -33,
    -7, -39, -5, 18, -15, 18, 7, 47, -3, 42, 36, 21,
    59, -13, -17, 45, 45, 84, 37, 30, 81, 46, 93, 11,
    25, 49, 77, -14, 24, 84, 50, 72, 6, 2, 8, 16,
    0, 73, 54, 7, 90, 53, 61, 5, 32, -56, 7, -57,
    -9, -64, 5, -69, -35, -54, -59, -59, -47, -35, 7, -13,
    98, 18, 14, 30, 23, 58, 97, 65, 1, 26, 25, -10,
    55, 84, 62, 27, -24, -44, -25, 26, -47, -6, -68, -45,
    -24, -63, 0, -65, -49, 18, 31, -17, 4, 0, 27, 8,
    71, 1, 79, 59, 29, 88, 65, 39, 6, 22, 55, 91,
    -19, -31, -48, 35, 54, 42, -36, 26, -29, 21, 24, -52,
    4, 19, -43, 42, 77, 79, 24, -4, -9, 42, 14, 67,
    74, 39, -24, 40, 71, 2, -10, -2, 43, -45, 27, 14,
    -21, -20, -27, 43, 27, 17, -2, 21, 60, 25, -16, 25,
    1, 12, -31, 8, 6, -32, 31, 51, -50, 10, -36, -13,
    23, -17, 10, -16, 83, 11, 46, 42, 61, 31, 56, 30,
    55, 22, 31, 63, -6, -10, 43, 37, -24, 6, -84, -63,
    -11, -8, -45, 17, 21, 5, -82, -57, -31, 5, -55, 10,
    4, -50, -54, 34, -19, 14, -81, -49, 16, -28, -2, -67,
    27, -48, -25, -63, -42, -62, -71, -34, -43, 6, -23, 13,
    -36, -28, 26, -66, -53, 11, -38, -35, 29, -33, -1, -24,
    1, -29, -35, -53, -22, 12, -65, -50, -81, -7, 25, -55,
    -16, -4, -41, 0, 30, 38, 5, -32, -47, -37, -8, -13,
    22, -51, -6, -9, 19, 76, 26, 25, 13, -44, -42, 46,
    -7, 42, -12, 40, 62, 15, 25, 66, -15, 39, -40, 55,
    -8, -9, 19, 0, 39, -25, -47, 36, -23, 40, 56, 39,
    -49, -16, -62, -55, -37, -43, 15, 11, -40, -38, 31, -31,
    16, 28, -50, -58, 39, -48, 45, -40, 2, -5, -33, 25,
    -58, -30, -30, 21, 25, 34, 24, 39, 21, 9, 20, 58,
    17, 67, 43, 52, 74, 55, 81, 15, 1, 69, 71, 66,
    42, 9, -20, -23, 37, 53, 4, -10, 40, -3, 25, -35,
    -25, -7, 18, 17, 56, -2, 14, 46, 27, 39, 101, 16,
    52, 92, 66, 34, 13, 11, 15, 39, 23, -23, 33, -19,
    16, -32, 6, 36, 9, 4, -15, -44, -25, -40, 49, -22,
    -9, -68, -16, 49, 5, -31, 10, 32, 27, -47, -22, -50,
    -58, 28, -70, -57, -10, 37, -57, -51, -45, 24, 9, 19,
    13, -32, 27, -18, -14, -35, 1, 44, -6, 41, -4, 27,
    61, 59, 0, -4, 29, 18, 38, 69, 44, -14, 3, 72,
    -31, -38, -46, 30, 19, -49, -72, 39, 0, -24, -67, 31,
    -57, 0, -73, -55, -22, 74, 79, 1, 76, -3, -23, 54,
    72, 77, 44, 105, 5, 82, 20, 29, 37, -61, 7, -25,
    23, -5, 11, 33, -43, -49, 36, -45, -4, 21, -24, 42,
    13, 22, 15, 11, 84, 41, -8, 39, 48, 54, 32, 32,
    -2, 15, -33, 79, 67, -9, -29, 67, -23, 60, -27, -9,
    -7, 97, 28, 67, 67, 80, 61, 49, 67, 1, 3, 40,
    76, 6, -10, -15, 5, 36, 17, 10, 4, 46, -10, 83,
    19, 35, 47, 4, 70, 28, 33, -19, 38, 50, 32, 22,
    67, 72, 67, 16, -12, -65, -70, -38, -23, -61, -75, 0,
    -7, -64, 10, -67, 15, 1, -44, 39, 1, 4, 66, 11,
    8, 38, 23, 70, 80, 57, 36, 41, 27, 36, 30, 64,
    24, -16, 8, -13, 4, 27, -65, -20, -33, -66, -66, -19,
    22, -49, -6, 15, -10, 51, 39, -18, 29, -18, 81, 58,
    56, 75, 71, 82, 51, -10, 80, 49, -12, -16, 63, 21,
    44, 12, 52, -43, 11, 15, -2, 48, 13, 9, 34, -14,
    20, -23, 20, -6, 49, 60, -36, -13, 73, -10, 56, 60,
    1, -34, 37, 31, 68, -10, 20, -53, -2, -4, 20, -30,
    -11, -35, -49, 10, -4, 17, -3, -19, 16, 41, -36, 13,
    25, 27, -22, 43, -39, 21, 38, -7, 13, -59, -19, -9,
    -26, 16, 63, 16, 75, -20, 47, 65, 69, -4, -36, -9,
    55, 19, 67, -19, -26, 2, -9, -63, 20, -52, -73, -10,
    -55, -52, -59, -14, -2, 9, -61, -26, 31, -47, -43, -33,
    -72, -68, 19, -22, -12, 2, 9, 12, 17, 3, 19, 9,
    -29, -11, -58, -63, 29, -77, -62, -79, -67, -20, -2, -73,
    -22, -70, -17, 11, -1, -33, 26, -42, -31, -60, 21, -10,
    -43, 26, 29, 11, -55, -29, 33, 22, -43, 19, -49, 0,
    31, -9, -68, -6, 15, 23, -54, -20, -12, -16, -33, -24,
    23, 39, 4, 65, 16, 12, 16, 1, 16, -13, 17, -24,
    -14, -56, -40, 29, 14, -82, -34, 20, -46, 6, -34, -78,
    -16, -59, -26, -82, 27, -47, 15, -42, -78, 2, 25, -19,
    -66, -8, -37, 18, 1, 25, 39, -41, 28, 30, -11, -49,
    -75, -20, 7, 4, -22, -74, -93, -71, -32, -32, 5, -78,
    3, 22, -70, -52, 20, 35, 72, 45, 67, 85, 72, -14,
    -8, 36, 42, 31, 88, 81, 25, -3, 6, -4, 36, 19,
    24, 9, 32, 26, -11, -40, 32, -18, -36, 7, 48, -67,
    20, 46, 63, 18, -2, 11, 36, 35, -15, 91, 58, 8,
    73, 46, 82, 23, -26, -84, -53, -9, 44, -40, 3, -48,
    -55, -23, -33, -41, 0, -3, 35, 25, -13, -31, -12, -38,
    35, 31, -69, -45, -44, -8, -20, -40, 15, 1, -45, -89,
    -1, 31, 1, -43, 12, 15, -21, 44, -53, -25, 31, -48,
    -30, -33, -38, 64, 20, -52, -26, 8, -8, 0, -38, 49,
    31, 31, 19, -22, 19, 33, 30, 56, -22, -17, 35, 18,
    -34, 16, -59, -1, -22, 45, -52, 30, -53, 18, 6, -25,
    44, 75, 56, -10, 13, 79, 37, 34, 40, 21, 20, 48,
    81, 26, 16, 37, -9, 27, 42, -1, -30, 29, 43, 17,
    22, -9, -57, -24, -4, 51, 8, 2, -41, 29, -17, -9,
    48, 46, 74, 53, -11, 63, 73, 2, 13, 71, -13, 50,
    44, 53, 34, 75, 72, -14, 57, 13, -5, 53, 30, -14,
    -7, -4, 28, 52, 38, 6, 43, -64, -50, 33, -42, 35,
    -1, 0, 64, 24, 42, 58, 18, 46, 30, 27, 34, -31,
    -20, 77, -2, 59, 62, -25, 29, 26, 56, 5, 60, -23,
    58, 57, 7, 21, 4, 38, 46, 7, 75, 24, 26, 80,
    46, 56, 70, -15, 22, 77, -13, 24, 60, 37, 22, 56,
    -27, 64, 74, 15, -7, -1, 63, 1, -10, -69, -2, 3,
    -6, -44, -19, 18, 4, -46, -82, 18, -63, 13, -50, -3,
    -45, -13, 5, -54, -23, 42, 47, 51, -5, 7, -27, 40,
    -4, 19, -30, 81, 19, 37, -13, -59, -70, -74, -44, -58,
    -29, -13, 8, -54, -4, -46, -28, -16, -9, 45, 27, -7,
    48, -5, -14, 34, 19, -13, -25, 3, -49, 34, -7, 43,
    56, 36, 12, -6, 41, -11, 9, 71, 14, 64, 68, 11,
    -10, 62, 40, 90, -8, 40, -19, 30, -8, -16, 38, 80,
    32, 34, 83, 43, 6, 61, 68, 52, 58, 75, -6, 8,
    -20, -36, 42, -49, 34, -36, -23, -27, -41, -3, -71, 38,
    11, 59, 8, -8, 67, 10, 11, 17, 30, 42, 19, 3,
    60, 55, 75, 23, -33, -26, -28, -59, -38, -38, -7, 2,
    12, -88, 15, -56, -95, -1, -48, -25, 32, 43, 70, 2,
    61, 50, 66, 12, 35, 25, 85, 1, -13, -21, 37, -16,
    27, -28, 41, -13, 22, -33, -35, -6, -47, 34, -10, -14,
    50, -8, 38, -19, 19, 44, 54, -37, -61, -33, 2, 17,
    27, -4, 29, -40, -70, -16, 45, -28, 62, 34, 62, 104,
    106, 75, 11, 21, 68, 63, 17, 25, 35, 7, 47, -29,
    69, 10, -14, 16, 2, -28, 17, 3, -5, 24, 0, 35,
    -10, 26, 33, -30, 22, -43, 35, 14, -35, 27, -51, -10,
    -64, -67, -18, 11, -59, -45, -64, 0, -23, -32, 8, 87,
    44, -13, 48, 56, 78, 41, 2, 46, 67, 77, 67, -5,
    89, 45, 87, 96, 82, 102, 79, 19, 16, 48, 36, 75,
    66, 27, 39, -20, 39, 65, 61, 91, 83, 43, 17, -18,
    68, 5, -16, 43, 72, 14, 76, -32, 42, 60, 43, 4,
    6, 84, 83, 10, 86, 52, 56, 77, 107, 39, 36, 6,
    -3, 1, 14, 51, -9, 46, 55, 5, 13, 30, -35, 56,
    27, 25, 52, 38, -16, -50, -34, -31, -15, -63, -11, -7,
    42, 36, 22, -28, -41, 29, -32, 1, -65, 44, -31, -47,
    -14, -33, -40, 32, 31, 11, -4, -20, -34, 46, -35, -23,
    80, 12, 53, 11, 66, 11, 57, 66, 21, 69, 64, -3,
    54, -21, 57, -21, -51, -34, -11, -66, -33, -71, -69, -47,
    -53, -32, 26, -35, -55, -58, 28, -5, 21, 63, 2, 49,
    88, 69, -6, 23, 52, 80, 17, 104, 67, 24, 58, -16,
    13, -68, -20, -22, -58, -18, -4, -28, -5, 36, -11, -60,
    -7, -33, 2, -42, -39, 44, 44, 1, 44, 9, 6, 44,
    19, 23, 45, 44, 47, 8, -14, 95, 82, 63, 69, 59,
    82, 80, -7, -21, 2, 98, 108, 32, 21, 14, 63, 74,
    38, -19, 68, 70, 7, 5, 72, 6, 90, 34, 38, 11,
    -4, 59, 27, -1, 89, 57, 22, -16, 1, 24, 76, 6,
    83, 104, 64, -4, 51, 23, 52, 29, 12, -46, -46, -19,
    -70, -43, 16, 6, -41, -52, -9, -85, -45, 14, -24, -5,
    10, 23, 57, 4, 33, 19, 69, 68, -1, 66, 42, 23,
    84, 12, -10, 39, -42, -29, -62, -27, 35, -65, -65, -34,
    -70, -11, -31, 13, -86, -16, 13, 3, 29, 100, 1, 94,
    53, 62, 79, 52, 49, 35, -5, 68, 78, 57, 30, 7,
    -8, 9, -31, 54, 1, 22, 38, 13, -45, 5, 13, 5,
    -43, 5, -35, 2, 7, 62, 79, -25, -6, -6, -17, 67,
    -25, -8, -35, 10, -26, -22, 71, 39, 57, 10, -25, -22,
    -57, 8, -60, -6, -23, -32, -40, -30, -37, -42, -29, -68,
    63, 24, -63, -58, -37, 15, 42, -30, 17, -38, -17, -22,
    -64, -7, 10, 34, -3, 29, 40, 41, 28, -22, 63, -44,
    -15, 35, -8, -24, -49, 45, 3, 43, 32, -74, -60, -13,
    -73, -62, -2, -62, -30, -64, -24, -29, -75, -75, -20, -42,
    15, -5, -32, -24, -33, 5, 10, -26, -59, 16, 21, 8,
    -23, 10, -6, -39, -79, -49, -23, -5, -11, -6, 13, -47,
    1, -45, -62, -54, -69, -73, -4, 40, 36, -9, -30, -32,
    -32, 2, -29, -51, -9, -37, -19, 27, -31, 29, -53, 49,
    -12, 17, -14, -19, -38, -72, 14, 38, -6, -43, -3, -13,
    -53, -32, 15, -19, -2, -12, 43, 5, 14, 41, 61, 76,
    48, 5, 44, 70, 56, 27, 14, 24, 36, 7, -33, -20,
    -37, -24, -5, -21, -53, -29, 7, -15, 6, 18, -1, -28,
    -51, -42, -66, -75, -50, 11, 41, -12, 16, -13, -66, -50,
    -37, -65, -25, 5, -56, -31, -51, 56, 28, -40, 25, -53,
    42, -23, -1, 18, 35, 20, -2, -8, 84, 10, 6, 41,
    5, 23, 32, 78, 45, 7, 75, 9, 58, 33, 86, 5,
    -6, -6, 21, 10, 68, -21, 17, -33, 12, 15, -14, 29,
    -23, 34, 25, -22, 66, 61, 41, 24, 65, 9, 8, 79,
    0, 54, 48, 92, 98, 7, 24, -24, 30, 34, -25, 12,
    -8, -15, 37, -55, -15, 3, -48, 21, 53, -32, 29, -5,
    45, -68, 45, -20, 30, -53, -13, 10, 27, 20, 3, -9,
    -53, -1, 25, 13, -70, 20, 13, -26, 9, -15, -7, -41,
    -20, 34, 23, -61, -21, 19, -37, 11, 29, 43, 61, -23,
    -32, 75, 12, 63, 49, 1, 54, 46, 6, 63, 46, 2,
    -77, 27, -56, 21, -31, -23, -13, 58, -53, -55, 13, -26,
    -28, 13, -43, 25, 9, 66, 76, 53, 11, 57, 40, 26,
    84, 39, 52, 34, 39, 45, 36, 45, 43, 9, -37, 29,
    21, 18, -6, -37, -47, 11, -55, 10, -60, -59, -43, 30,
    20, -15, -35, 13, 22, -38, 40, -8, 14, 31, 58, -35,
    47, 15, 39, 77, 11, 9, -1, 59, -5, 52, 44, 70,
    53, 81, -13, -7, -1, 49, 31, 32, 17, 5, 8, -45,
    17, -68, -83, -8, 27, -43, 29, -47, -63, -28, 2, -42,
    16, -47, -48, -53, -66, 23, -61, -65, -48, 9, -2, -9,
    -43, 5, -10, 31, 53, 80, 82, 55, -7, 54, 0, 46,
    36, 84, 1, -5, 67, 78, 27, 51, 1, -23, -42, 1,
    21, -40, 0, -33, -51, -45, -76, -4, -58, -69, -29, -40,
    1, 27, 34, 49, 38, 33, 64, 15, 101, 65, 76, -4,
    83, 48, -10, 86, -28, -19, 12, -1, 18, -85, 20, -23,
    -37, -78, -60, 20, 10, 21, -27, -60, 38, -3, -22, 33,
    59, -20, -13, 45, 11, 1, 18, 33, 15, 61, 57, 45,
    -24, -11, 39, 5, -43, 14, 37, -13, -9, 1, 48, 58,
    -33, 44, 28, 31, -36, 20, 101, 59, 29, 32, 78, 20,
    74, 16, 52, 58, 15, 40, 38, -18, -3, 22, 76, 46,
    -10, 18, 93, 17, 74, 47, 81, 17, 93, 57, 26, 56,
    15, -52, -24, 20, 9, -32, -47, -46, 27, 18, -41, -5,
    16, -46, 51, -13, 5, 48, 63, 55, 97, 74, 35, 50,
    53, 21, 0, 39, 24, -8, 66, 10, 91, 53, 65, 55,
    61, 80, 95, 46, 29, 59, 21, 43, 56, 63, -14, 64,
    24, 5, 29, 49, 71, 3, 62, 97, 12, 66, 29, 59,
    74, 14, 61, 91, 23, 9, 47, 58, 63, 47, 35, 25,
    89, 17, 26, 86, 28, 43, 19, -11, 74, 14, 20, 27,
    51, 92, 96, 46, -2, 46, 44, 83, 26, -16, 59, 24,
    28, 17, 23, 33, -28, -32, 79, 75, 6, 74, 37, 13,
    7, 7, 80, -13, 10, 81, -5, 71, 43, 59, 46, 25,
    53, 48, -1, -15, -11, 26, 47, -10, 34, 53, 42, -11,
    23, -22, 58, -18, 5, -7, -23, -21, -14, -26, 76, 19,
    4, 36, 8, 16, 76, -15, -9, 53, 73, -19, 42, 82,
    21, -2, 56, 52, -31, -70, -28, -63, -80, -6, -9, -23,
    -79, 17, 12, 18, -34, -29, -80, 21, 21, -30, 78, 13,
    52, 11, 28, 70, 65, -4, 14, 61, 26, 10, 65, 82,
    -20, 24, -23, -18, 21, -24, -33, -37, -60, 26, -60, -53,
    -8, -25, -26, -14, 87, -25, -20, 18, -31, -17, 65, 35,
    -2, 31, 19, 6, 57, 10, 49, -39, 1, 26, 45, -9,
    50, -29, 5, 74, -12, -26, 14, -12, 54, 27, 15, 83,
    38, -16, -32, 50, 48, 57, -9, 25, 58, 61, 55, 73,
    0, -29, 45, 48, 11, 24, 21, -31, -7, -3, 32, -13,
    13, 40, -19, -20, -38, -11, -66, 30, 79, 27, 50, 20,
    35, 48, -24, -6, 24, -22, -38, -12, -21, -13, -28, 10,
    6, -50, -10, -71, -62, -35, 3, -84, -6, -17, -71, -69,
    3, -51, 5, -66, 48, -8, 19, 13, -27, -22, 17, 4,
    36, -20, 21, -11, -2, 45, -4, -34, 35, -7, 18, -24,
    -13, -24, -37, -13, -8, 2, 49, 12, -10, -14, -48, 38,
    16, -11, -49, 37, -4, 18, -9, -14, -27, 2, 10, -19,
    -48, -31, -59, -24, -2, 38, -39, -87, 3, 38, -48, -21,
    -6, 38, -5, -2, 19, 26, 37, 22, -52, 28, 45, -52,
    -55, -42, 32, 52, 0, -22, 23, -34, -10, -45, -45, -22,
    21, 62, 38, 77, -13, -17, 61, 71, 82, -13, 61, -14,
    22, 34, 65, 7, -33, -31, -14, 43, 29, 46, -22, -35,
    54, 40, 1, 29, 30, 41, -40, -5, -7, 26, -10, -33,
    -23, 12, -60, 0, -56, -29, -91, 19, -74, -24, -80, -2,
    -43, -28, -38, 9, -17, -19, 38, -2, -32, -26, -19, -23,
    -46, -15, -73, -40, 29, -34, -19, 0, -48, 16, -61, -14,
    -53, -18, -82, -15, -58, -65, -32, 14, 63, 41, 56, -37,
    -2, -12, -13, 26, 4, 25, -2, -21, -14, -35, 21, -21,
    66, 58, -8, 6, -20, 78, 8, 14, 30, 49, 24, 55,
    61, 19, 74, -10, 9, 23, 22, 48, 77, -4, 65, 40,
    76, 64, 25, 34, 2, 49, 77, 22, 42, 28, 5, -22,
    -45, -39, 45, 43, -22, 31, 11, -65, -58, -26, -40, 12,
    57, 62, -8, 70, 42, -8, -4, 42, 87, -3, 45, -26,
    70, 52, 20, 51, 8, 24, -10, -43, 5, 2, -59, -36,
    13, -56, 13, -53, 9, -71, 18, -21, 61, 63, 58, 52,
    64, 7, 20, 48, -1, 21, 63, -8, 37, 40, -5, 73,
    40, -58, 0, 30, 42, 7, 41, -26, -27, 11, -4, 35,
    58, -21, -7, 24, -13, 53, 54, -38, 25, -48, 24, -22,
    1, 30, -17, -20, -2, -11, 50, -30, 7, -15, 1, 8,
    -17, -18, -6, -34, -38, -11, -42, 30, 24, 48, 10, 18,
    -45, -47, 17, 13, 28, -35, -55, -22, 14, -53, 10, 5,
    -10, -50, -47, -14, -30, -33, -64, -40, -28, 40, 14, -58,
    -45, -48, 41, 9, 51, -36, 20, 25, -44, -70, -16, -52,
    -51, -13, -83, -32, -43, -42, -34, -25, -61, -8, -78, 1,
    -2, 93, 54, 53, 54, 56, 31, -5, 77, 77, 36, 51,
    41, 29, 80, 8, -63, -33, -34, -44, -10, -7, 18, 18,
    22, 22, 10, -14, -12, -42, 4, -55, 24, 85, 57, 69,
    78, 15, 65, 39, 63, 81, 36, 83, 43, 32, 78, 80,
    -46, 3, -29, -6, -33, -32, -7, -29, -24, 5, -21, 31,
    65, 41, 47, -11, -15, -26, -31, -11, 33, -52, -32, 5,
    6, -36, -27, -15, 17, 33, -47, -37, -97, -66, -27, -28,
    -40, 22, 8, -10, -24, -11, 36, -15, 12, 19, 30, 30,
    -43, 8, -4, 12, -30, 59, 30, 26, 48, 14, -14, 15,
    -16, 70, 60, 37, -76, -55, 32, -35, 20, 41, -47, 51,
    -48, -9, 48, 52, 67, 53, -47, -13, -9, 70, 58, 82,
    56, 85, 47, 3, 8, 43, -3, 93, 9, 3, 100, 11,
    -24, -8, 29, -12, 44, -24, 11, -48, -44, 24, 27, -21,
    32, -5, 31, 9, -36, 35, -20, 59, 72, 72, 1, 19,
    9, 36, -7, -8, 24, 90, 33, -26, 16, -4, 31, 39,
    -2, -2, 39, 47, 81, 62, 13, -6, 44, 28, 69, 8,
    29, 10, 11, -3, 14, -2, 30, 36, 40, 17, 0, 40,
    -53, -67, -33, 75, 13, -41, -27, -60, 13, -52, -5, -81,
    5, -13, -2, -3, -83, -35, -61, -35, 21, -48, 35, -10,
    -37, -41, -73, -7, -3, 44, 10, 16, 4, 31, -41, -6,
    -80, -9, -12, 6, -29, -18, -4, -44, -8, -98, -33, -82,
    -27, -17, -5, -44, 91, 38, 52, 111, 23, 83, 39, 105,
    30, 15, 55, 112, 97, 94, 58, 109, -37, -16, -52, -5,
    2, -66, 24, -3, 43, -39, 2, -22, 34, -35, 23, -65,
    98, 12, 29, 41, 60, 75, 101, 127, 108, 43, 121, 61,
    39, 90, 59, 105, -28, 10, 14, -52, -6, -47, -31, -25,
    -58, 9, 38, -54, 26, -47, -53, 27, -3, -14, 56, -5,
    -40, 3, -21, -40, -71, -13, 20, -50, -10, -66, -34, -73,
    -104, -20, -64, 14, -13, -34, -57, -56, -2, 41, -29, -37,
    -16, -34, -20, -34, 16, 22, -37, 51, 29, -6, 51, 4,
    25, -5, 7, 41, 69, 57, -2, -8, -36, 43, 27, 56,
    -20, 15, -46, 29, -5, 12, -14, -42, -8, 8, -33, 16,
    55, 68, 20, 87, 41, 33, 61, 25, 28, 108, 111, 31,
    75, 41, 119, 102, 30, -39, -1, -4, -52, -22, 10, -31,
    7, 11, 8, -24, -17, -45, -43, 40, -26, 91, 39, 38,
    76, -11, 15, 88, 43, 85, 39, 83, 57, 63, -11, 1,
    73, 86, 71, 56, 59, 114, 116, 83, 26, 41, 99, 107,
    31, 76, 50, 98, -17, -50, -62, -12, 7, -39, 37, 18,
    23, 17, -60, -17, 19, 17, -58, -40, 32, -53, 32, -18,
    -6, 20, 7, -43, 8, -57, -34, -18, -18, 30, -39, 36,
    19, 9, 31, -41, -53, -7, 18, 20, -5, 52, 22, 15,
    -33, 8, -20, -55, -43, -42, -17, -30, 40, 16, -54, -4,
    37, -12, 4, 6, -26, -45, -29, -24, 33, -51, -1, -29,
    -15, -14, -28, 4, 5, -41, 26, 41, -31, 2, -29, 31,
    -13, -57, 5, 35, -10, -24, -10, 22, 37, -24, 20, 22,
    39, 30, -55, -51, -54, 26, -36, 22, -15, -31, 33, -20,
    -39, -13, -44, -62, -19, -11, -37, 40, -19, -23, 34, -3,
    -20, 5, -59, 43, 8, 21, -48, 31, -55, -23, -41, -37,
    5, -61, -61, 3, 14, -6, -27, -25, -17, -19, -41, 34,
    1, -45, -18, -45, -40, 32, 8, 17, -16, -22, -3, -47,
    -61, 28, -9, 23, 34, 16, -26, -21, -11, -6, -7, -50,
    -37, 31, -8, -35, 32, -19, -31, 28, -52, -32, 32, -15,
    -32, 38, 1, -50, -49, -16, -12, -41, -30, 21, -55, -58,
    8, 10, -58, -61, 38, 47, -32, 48, 32, 41, -31, -22,
    27, 13, -51, 24, 45, -40, -57, -58, -41, -33, -39, -55,
    27, 46, 37, 26, 17, -29, -42, -42, 17, 6, 0, -38,
    -35, -32, -15, -20, 0, -27, -9, -44, 18, -48, 0, -59,
    -41, 45, -15, -20, 21, -55, -21, -8, -3, -19, -46, -59,
    -6, 38, -34, 0, 25, -58, 39, 39, -26, 47, 24, 18,
    18, 11, 29, -49, -17, 37, -21, -2, -43, 2, -4, 31,
    -25, 9, 19, -15, -79, 12, -41, 10, -62, -17, -20, -50,
    3, -33, -49, -21, 74, 66, 51, 66, 71, 58, 81, 65,
    11, 32, 61, 83, -4, 10, 13, 79, 17, -43, -37, -22,
    -29, -38, -53, -46, -33, -31, -7, -57, 23, -52, -38, 40,
    18, -12, 56, -4, 76, 0, 0, -6, 37, 3, 55, 31,
    -12, 24, -22, 43, -11, -65, -61, -56, -50, -29, 7, -68,
    -1, -70, 32, -40, -66, 13, 18, -40, 63, 23, 27, 3,
    -4, -3, -39, 61, 42, 53, -47, 62, 45, 12, 5, 69,
    24, 48, -28, 19, 31, -46, 61, 24, -40, -32, 21, 58,
    5, 19, 14, -25, 32, 73, -9, 20, 81, 23, 0, 62,
    59, 73, 22, 45, 41, 70, 60, 50, -1, 0, -6, 49,
    80, -1, -3, 60, 41, 12, 65, -13, 4, 25, 30, 21,
    12, -28, -15, -34, -32, -7, 28, 29, -39, 29, -23, -16,
    -15, 51, 46, -42, 40, 66, 50, 38, 11, -1, -14, 32,
    18, 51, 18, 77, 1, 90, 18, 39, 12, 55, 74, 69,
    -7, 70, 75, -6, 50, 36, 57, 72, 25, 2, 5, 43,
    27, -4, 49, 78, 37, 75, 20, 89, 58, 20, 71, 68,
    21, 35, 74, -16, 38, 40, 3, 33, 46, 82, 72, 1,
    4, 60, 92, 76, 65, 94, 13, 22, -12, 0, -2, -21,
    45, 48, 56, 74, -9, 9, 65, -18, 63, 38, -15, 37,
    22, 29, 6, 48, 67, 54, 19, -23, 81, 40, 72, 51,
    33, 63, 63, 19, 39, 27, 65, 52, 19, 77, 74, 72,
    38, 37, -7, 65, -7, -14, 49, -31, -4, -54, -35, -63,
    4, -71, -19, -26, -87, 5, -19, -77, -90, -10, 9, -22,
    22, -15, 65, 6, 9, 48, 72, 52, 50, 81, 24, 36,
    27, -2, 39, -8, 30, -53, -54, -13, 35, -45, -40, -19,
    -41, 25, 34, 8, -25, -45, -45, -21, 11, -16, 45, 13,
    46, 0, 18, 18, 67, -18, 5, 39, 18, 27, 64, 33,
    11, 18, -21, -16, 31, 10, 39, -9, 55, 43, -16, -29,
    16, -31, -17, 16, 24, 43, -11, 62, -11, -12, 42, 3,
    37, 5, -34, 2, 40, 45, 49, -2, 61, -15, -13, -11,
    -12, -2, -16, 25, -15, -32, -2, -41, 23, 30, 0, -38,
    6, 34, -39, -17, -43, -53, -40, -33, 28, 12, -57, -62,
    41, 2, 14, 19, -3, -6, 50, -30, -20, 44, 6, 29,
    39, -14, -14, -17, -31, 5, 52, 10, 35, -57, -24, -76,
    -40, -22, -55, 23, -17, -10, 17, -6, -38, -10, 19, -67,
    -29, 4, -35, -57, -48, -54, -11, 7, -23, -63, -21, -9,
    -37, 13, -36, -9, 22, 9, -36, 21, -26, -86, 9, 16,
    -10, 8, -9, -13, -3, -79, -31, -37, 30, -54, -12, 8,
    -26, -34, -48, -13, -76, -33, -17, 3, -71, -11, -34, -4,
    -63, -57, -8, -1, 34, 32, 15, -1, 26, 11, -66, 20,
    1, -11, -24, 41, 59, 16, 13, 19, 86, -7, -8, 18,
    77, 75, 32, 72, 14, -1, -1, -9, 23, -7, 8, 18,
    67, 35, 30, 53, -14, 36, 22, -29, 84, 15, 87, 74,
    -15, -57, 2, -80, -40, -2, 19, -22, -44, -45, -93, -26,
    -80, -33, -48, 28, 25, 60, 28, 35, 2, 75, 34, -21,
    57, 73, 11, 70, 83, 44, 95, 60, 6, 15, 35, -5,
    46, -28, -27, 28, -44, -2, -9, 43, 28, -26, 73, -29,
    51, 52, 5, 62, 44, 20, 16, 81, 28, 23, 54, 44,
    58, 58, 101, 12, -38, -34, 33, 38, 11, -33, -24, -29,
    44, 36, -9, -34, 51, 28, 64, -38, -17, 18, 43, 58,
    81, 51, 37, -17, 65, -1, 42, 33, 6, 21, 18, 41,
    61, -14, -50, -3, 25, -52, 25, 2, 23, 9, 11, -49,
    15, -47, -20, 17, -41, -48, -33, -11, -28, -66, 0, -20,
    -43, -21, -2, -9, -52, 17, -5, -4, 84, 34, 58, 74,
    22, 87, 33, 67, 23, 47, 61, 4, 73, 14, 49, -16,
    -29, 9, -61, -27, 5, -97, -39, -18, 3, -57, -95, -59,
    -19, -75, -84, -14, 15, -29, -11, 42, -38, -54, -29, 36,
    -13, -32, -46, 3, 56, 37, -21, -56, -48, -24, 6, -6,
    -42, -7, -31, -23, -8, -47, -21, -29, -16, -49, 2, -75,
    42, -46, -52, -46, -15, -11, -58, 12, 1, 39, -52, -49,
    -4, 26, 22, 41, -7, 27, -23, -53, -45, -49, -2, 41,
    35, -35, 22, 41, 18, -2, -30, -5, 61, 0, 16, 58,
    13, -6, 33, 68, 38, 21, -24, 63, 35, 9, -17, -3,
    -8, 36, 64, 20, 63, 20, -3, -23, -7, 74, 56, 74,
    26, 49, 26, 72, -61, -41, -80, -28, -74, -69, -16, 29,
    13, 0, -45, -37, -83, 9, -21, 38, -18, 13, -2, -8,
    4, 47, 61, 52, 17, 61, 74, 28, 13, -12, 69, 7,
    -45, 18, -5, -29, -60, 9, -41, -29, -34, 36, 21, 22,
    6, 5, 45, -13, 65, 47, -21, 70, 26, -10, 61, -9,
    62, -5, 10, -26, 76, 48, 76, 42, -23, 10, 45, -36,
    -24, 0, -19, -14, 49, 41, -37, -24, 48, 8, -24, 6,
    17, 39, 18, 52, 51, 38, 30, 7, -31, 21, -32, -38,
    -29, -2, -26, 12, 42, 11, -57, 37, 3, 24, 13, 5,
    -17, 39, -56, 34, 46, 12, -30, -74, 7, 55, 3, -15,
    -33, 1, 22, 7, -6, -44, 17, -6, -66, 30, 21, 9,
    14, 73, 77, 32, 70, 51, 47, 18, 8, 59, 4, -13,
    55, -4, 51, 3, -22, -32, -35, -23, -76, -82, -33, 20,
    -70, -66, -33, 11, 6, -50, -42, -51, 27, 7, -13, -70,
    9, -53, -33, -4, -21, -44, 13, 14, -12, -45, -44, -75,
    -40, -66, -35, -66, 10, -72, -68, -67, -44, -11, 1, 19,
    -47, -17, -26, 8, 39, 30, 22, 31, -13, 22, -40, -32,
    -32, -32, -17, -62, -47, -26, -6, 41, -67, -1, 10, -45,
    -3, -40, -29, -54, -30, -32, 31, -6, -60, 9, 24, -20,
    -45, -35, -74, -42, -12, -57, -69, -49, -54, -11, 6, 15,
    33, 13, -43, -32, -44, 24, 0, 19, -47, 35, -59, 15,
    -55, 34, -38, -52, 8, 33, -12, 19, 80, -11, 53, 43,
    -3, 63, 80, 75, -7, 80, 77, 51, 23, 73, -4, -4,
    27, 39, -6, 51, 31, 32, 48, 54, 38, 47, 5, 41,
    17, -35, 29, -1, -49, 7, -23, 12, -20, -15, -6, -55,
    3, -58, -42, -29, 4, -8, 7, -44, -16, -19, 20, 28,
    -8, -60, -58, -10, -69, -35, -57, 7, -26, -61, 17, -65,
    -23, 18, -2, -74, -28, -47, -18, 10, 16, -39, -4, -79,
    14, -5, -75, -37, -6, -20, 35, -8, 29, -9, 55, -3,
    13, -3, 14, -8, -24, -34, 48, 20, -32, 57, 36, 13,
    23, 31, 66, -18, -8, -14, -8, 36, 63, 44, 54, 38,
    35, -17, 78, 80, 31, 43, 46, 89, 35, 25, -2, 46,
    60, -14, 47, 18, 26, 20, -25, -7, -55, 12, -66, -62,
    -58, -52, -15, 15, -28, 28, -26, 26, 67, 64, 52, -10,
    81, -24, -9, -2, 17, 50, 40, -18, 80, 80, 57, -25,
    5, -15, -34, -77, 16, -45, -76, 8, -7, -5, 5, -19,
    -38, -32, 9, -8, -15, -4, -8, 34, 69, 65, 47, 52,
    11, 81, 53, -1, -6, -11, 18, 68, 32, -11, 33, -21,
    32, 53, 39, 0, -8, 33, 45, -1, 12, 6, 16, -36,
    -48, 36, -30, 35, 26, -11, -35, -4, -17, -37, 50, -5,
    -16, -44, 1, 3, 42, -17, 27, -14, 10, 2, -17, -10,
    -63, 15, -56, -65, 25, -40, -48, -42, 20, -30, -56, -30,
    -53, -57, -37, 25, -9, -10, -8, -34, -47, -64, -56, -44,
    51, 65, 82, 43, 37, 33, 60, 28, 24, 29, -14, 1,
    18, 43, 10, 56, -68, 40, -67, 8, -53, -31, -59, -67,
    -94, -46, 38, 15, 8, -11, -35, -23, -6, -26, 50, 1,
    -6, 20, 38, 54, 0, 71, -1, 46, 59, 20, -32, -20,
    12, -71, -47, 4, -72, 32, -11, -13, -33, -36, 17, -62,
    -17, -53, 23, 31, 2, 52, 2, 38, -18, -30, 28, 56,
    69, 25, -14, 20, 5, 47, 42, 67, 11, -17, -16, 44,
    46, 21, -18, 46, 31, -42, 32, 76, -23, 22, 21, -5,
    28, 94, 92, -7, 41, 91, 84, 20, 74, 75, 40, 71,
    69, 24, 14, 13, -20, -3, 56, 48, 22, 34, 84, 41,
    4, 85, 68, 50, 72, -1, 63, 24, -6, -16, 27, -13,
    -43, 1, -1, -28, 40, 44, -12, -28, -22, -18, 18, 31,
    -9, 66, 38, 41, 19, -14, -6, 75, 31, 38, 13, 24,
    21, 48, -9, 39, -16, -4, 34, 13, 15, 68, 47, 54,
    55, 35, -18, 0, 52, 46, 42, 84, 8, 27, 43, 37,
    87, -12, 56, 102, 17, 85, -1, 53, 13, 65, 59, 52,
    16, 16, -16, 54, 85, 0, 11, 54, 70, 61, 84, 39,
    26, -7, -8, -20, 58, 79, 86, 69, 28, 73, 61, 4,
    25, -16, 73, 41, 67, 14, 71, 55
};

static const float fc1_weight_scale = 0.0011448346f;

// FC1 bias: [32]

static const int8_t fc1_bias[32] = {
    10, 21, 77, 24, 127, 38, -3, -4, -14, 78, 85, -49,
    -70, 77, -8, -51, 35, 29, 66, 40, 1, -13, -44, 82,
    95, 37, -21, -42, -41, -62, -78, -19
};

static const float fc1_bias_scale = 0.0007172917f;

#endif // FC1_WEIGHTS_H
